nep4 2 U O 
cutoff 6 5 97 51
n_max 4 4
basis_size 8 8
l_max 4 2 0
ANN 50 0
  4.0329858e-05
  5.4529912e-05
  3.7377009e-05
  1.4749580e-04
  2.2086383e-04
 -3.0603929e-05
 -2.5354617e-04
 -3.8350048e-05
  1.9056661e-04
  8.3971107e-05
  2.8984585e-05
  5.1664792e-05
  1.7236070e-04
 -1.3215050e-05
  1.1774681e-04
 -4.3262800e-05
 -6.2623399e-06
  1.7248858e-05
  8.0600781e-05
  3.2759130e-05
  2.5211750e-05
  6.1966271e-06
 -5.8394653e-05
  1.0426620e-04
  2.5189744e-04
 -8.3207806e-06
 -1.2215763e-05
 -2.6194111e-05
 -1.4255472e-04
  4.6492746e-06
  3.8547146e-01
 -5.1401466e-06
 -3.8113751e-02
  3.1885780e-02
  3.4939265e-03
  3.6608490e-01
 -8.0818922e-05
 -1.7754358e-04
 -1.6702105e-01
 -3.2407489e-02
  4.7264714e-04
  5.5469479e-04
  3.0459447e-02
  6.6768698e-02
 -1.3854010e-04
  8.6392224e-04
  3.4180074e-04
  4.9166929e-02
 -3.5962746e-01
  2.9018249e-05
  4.4411590e-04
  4.3548518e-04
  9.3220769e-05
 -3.7654044e-04
 -3.9645779e-04
  7.1684110e-05
  5.7954352e-05
 -2.7114069e-04
  1.0668715e-05
 -2.7318823e-04
 -9.2613418e-06
  1.7607998e-05
 -2.4607303e-05
 -1.0567989e-04
 -2.3961745e-04
  1.9040471e-04
  1.1071430e-04
  1.0048079e-04
  1.9943681e-04
  9.8190849e-06
 -1.6876586e-05
 -1.8178911e-05
 -9.5633050e-06
 -2.0349215e-05
 -1.0590126e-04
  2.3750510e-05
  4.7821239e-05
 -2.8561970e-04
 -1.5084530e-04
 -6.1332918e-05
  1.7202314e-04
 -2.8354976e-05
 -7.7150708e-06
  5.0095510e-04
  5.7055804e-06
  2.4025028e-06
  1.6359885e-06
 -4.3461663e-05
  3.4785754e-04
  1.5879508e-04
 -1.6816132e-04
 -6.4225355e-06
 -5.0545159e-06
 -4.7653357e-05
 -1.1810785e-04
  5.0707560e-05
  1.0728231e-04
  3.2990793e-05
 -6.4569940e-06
 -3.7518588e-05
 -6.9377376e-05
  4.0022063e-05
  3.3658715e-05
  3.6339265e-05
  2.3682358e-05
 -4.2412150e-05
  3.0275825e-05
  1.0469043e-04
  7.2210612e-05
 -7.1338800e-05
 -9.6507596e-05
  1.6267717e-05
  1.1991429e-05
 -9.8899298e-05
  2.9986337e-04
  1.4192708e-05
 -2.0794092e-05
  6.1732894e-06
 -1.0031588e-04
  7.2196949e-06
  3.8975257e-05
 -1.5876923e-05
  1.9693922e-05
 -4.1288031e-06
 -1.1405406e-04
 -2.4967228e-05
 -7.2668750e-05
 -1.2782517e-04
  3.3873916e-05
 -2.8793227e-05
 -1.4985504e-05
 -1.1833096e-05
 -1.2812114e-05
 -5.0163176e-04
 -6.0907143e-05
 -3.8953323e-05
 -6.7705812e-05
  4.1413830e-05
 -1.1295493e-04
  3.7521215e-05
  5.7365109e-05
 -3.9930321e-05
 -2.3749559e-05
 -4.1389405e-05
  2.1424628e-05
 -1.0088506e-05
  1.8519956e-04
 -2.8326431e-05
  5.8098585e-06
 -4.2252104e-05
 -2.6870778e-04
  3.5382478e-04
  1.1729705e-05
 -3.1580577e-05
  8.8588386e-05
  1.6322899e-04
 -8.0259837e-05
 -5.8321066e-06
 -3.1479189e-04
  3.7398243e-06
 -6.9910246e-05
  7.2828952e-06
 -4.2793599e-06
  8.9187575e-05
  7.9130965e-05
  3.6114965e-05
  3.6182028e-05
 -2.0100738e-04
 -1.1005704e-05
 -9.9153687e-05
 -3.2935207e-04
  2.1312607e-07
  3.5147441e-05
 -4.5623435e-04
 -2.5624568e-05
  7.2599541e-05
  4.2055628e-05
 -2.0533368e-04
 -2.0398186e-04
  1.0419129e-04
 -5.3111064e-05
  1.2078531e-04
  1.5656748e-05
 -2.1048741e-05
 -8.1288345e-06
 -1.1392079e-06
  1.6640246e-04
  1.0432006e-04
 -8.0134982e-05
 -7.2847570e-06
  6.6059853e-05
 -1.7801273e-04
  8.6855041e-05
 -7.5411628e-04
 -1.1013286e-05
  3.3648591e-04
 -1.9277395e-05
  7.8035635e-05
 -2.1896856e-04
 -2.0349276e-05
 -4.0901195e-05
  2.7825319e-05
  1.0771656e-04
 -2.2944741e-04
  2.2666999e-04
  1.7540227e-04
  9.6388292e-05
 -6.5203509e-05
 -2.9373989e-05
  1.3980878e-05
  4.4156313e-05
 -1.7230574e-04
 -1.8260905e-06
 -5.2481362e-05
 -1.6326063e-04
  4.8691763e-05
  2.7918139e-05
 -1.9732074e-04
  1.5254697e-04
  2.3255806e-04
 -1.0521998e-04
 -2.1902357e-04
  3.7873520e-05
 -1.5160668e-04
 -5.1834566e-05
  3.5304984e-05
  5.1445630e-05
 -5.0625786e-05
  2.9111761e-06
 -5.4325537e-05
  8.1257342e-05
  1.6529439e-04
 -7.6620461e-05
  4.1858539e-06
 -2.7796737e-05
  4.2714455e-05
  1.5001982e-05
 -3.3509434e-06
  2.6249842e-05
 -3.7974169e-05
 -1.0855298e+00
  3.3228567e-01
 -5.1637715e-01
 -9.4960535e-01
  4.4674695e-01
  8.0475155e-03
 -8.1235298e-04
 -1.0125377e-01
 -3.0294448e-01
  4.1904610e-01
 -1.4649454e-01
  4.0974584e-01
  6.8587226e-01
  2.1439067e-05
 -1.9341761e+00
  4.0290698e-01
  6.3516647e-01
  4.0747687e-01
  9.3078113e-01
 -2.5146798e-04
 -7.9341596e-01
  2.3704673e-01
  2.5424403e-01
 -1.5527988e-04
 -3.7548316e-01
  3.9882179e-05
  1.4707924e-01
 -1.6177967e-01
  1.6211507e-01
 -7.5163640e-02
  2.3668272e-02
  4.3544039e-01
 -2.5509313e-01
  2.8275490e-02
  9.9799103e-01
  3.2872512e-04
  4.6815324e-04
 -1.3139186e+00
 -3.7256803e-04
 -3.1048509e-01
 -7.0938885e-01
  6.1127342e-02
 -3.3381197e-01
 -1.1527390e-01
 -3.9526865e-01
 -3.6073905e-01
  8.0985628e-02
  9.4225848e-05
 -9.4404882e-01
 -1.8648955e+00
 -6.5286708e-01
  2.0368938e-01
  1.0481333e-05
 -5.0955343e-01
 -7.8772974e-01
 -5.0886374e-06
  4.7733399e-04
 -1.1734134e-04
 -8.6383216e-06
 -1.4598047e-05
  2.2051792e-05
 -1.9858856e-04
 -1.8334952e-04
 -5.8148969e-05
  2.4127885e-06
  9.0067788e-06
 -3.1571974e-05
 -1.1930191e-04
 -5.3344422e-05
 -2.9886785e-06
 -5.3659464e-06
  3.9536728e-05
  7.4818986e-06
 -2.0057371e-07
 -8.4665451e-05
  1.0798362e-05
 -3.5418096e-04
 -6.9586400e-05
 -5.0385593e-06
  1.0926583e-05
  6.4966036e-05
  1.5623375e-05
 -7.0233975e-05
 -1.1039412e-05
 -1.1934038e-05
 -2.9061691e-04
  1.6243781e-05
 -4.5831712e-05
  3.6880709e-05
  1.3768201e-05
  2.2100297e-01
 -7.3787533e-02
  2.1984403e-04
 -1.7746979e-01
 -1.0870799e-04
  1.1108736e-05
  1.3689283e-05
  4.2126547e-05
 -1.3335603e-01
 -6.0852955e-05
  3.7494820e-01
  1.8921148e-04
  3.3742719e-05
  6.9309113e-05
 -1.1947529e-04
  3.5215941e-01
  4.4265203e-04
  2.9131302e-03
 -2.2345931e-04
  6.8962778e-05
  6.7280867e-05
  1.0813914e-04
  8.4323565e-06
 -2.0966474e-04
 -1.7763341e-04
 -4.9482547e-05
  4.0667070e-05
 -3.1627214e-04
  9.6219946e-07
  2.9456471e-06
  4.9432845e-05
 -7.5493015e-05
 -1.7859858e-05
 -4.3124212e-05
  1.2280801e-04
  3.1235450e-05
  1.6268135e-04
  2.7676446e-05
 -1.9832095e-04
  2.1618551e-05
  6.8255918e-05
  4.7186004e-06
 -8.5471373e-05
  1.6894948e-05
 -5.1617284e-05
 -8.0135242e-06
  1.7141686e-04
 -7.1362256e-06
 -1.7582930e-05
 -2.8775567e-05
 -2.3054259e-05
  1.3343006e-05
 -3.6692469e-05
 -4.4578261e-05
  4.9946761e-05
 -2.6119402e-05
  2.1439766e-04
 -4.6651901e-05
 -1.2415011e-05
 -6.8493835e-05
 -6.6045024e-02
  1.8448891e-05
  5.6214019e-05
  1.6148710e-04
 -5.0353166e-02
 -1.0678727e-05
  2.2436750e-04
 -1.1394919e-04
  7.8748344e-05
 -1.1486305e-04
 -1.3236750e-04
 -2.3596313e-05
 -1.8880403e-04
 -1.1164009e-01
  2.9568566e-04
  7.2503411e-03
 -2.3261753e-04
 -2.1063481e-04
 -2.0118301e-05
  5.2839378e-06
 -3.7615184e-05
 -4.6261841e-05
 -3.5842750e-05
  3.3538927e-05
 -4.3972112e-05
  6.7431982e-05
 -8.0441851e-06
 -4.1363815e-05
 -1.2542539e-05
  2.6255086e-05
  3.7487313e-05
 -1.7904047e-05
 -1.4644320e-04
 -1.7860471e-04
 -1.0190097e-04
 -3.6911581e-06
 -1.3539475e-05
 -2.1039719e-04
  5.5724773e-05
 -1.1562052e-04
  5.6064968e-05
  1.3077145e-05
 -2.8861927e-05
  9.5438256e-05
 -8.7104389e-05
 -1.2807942e-05
 -6.5336950e-05
  1.3009753e-04
 -2.5206098e-05
  1.1328997e-04
  2.8045626e-05
 -2.0111103e-05
  2.4969915e-05
 -3.0945678e-04
 -1.1563468e-04
  1.6845081e-05
  8.1609563e-05
 -1.0771883e-04
  1.6936277e-04
 -1.1396252e-04
 -8.9216795e-05
  3.8252184e-01
  1.7716059e-01
 -2.4266414e-01
 -1.4025836e-01
 -1.3988860e+00
 -4.7317156e-04
  6.7090124e-01
  4.1602585e-02
  7.2911203e-01
 -1.5181929e-05
 -3.3460057e-04
  2.3209883e-04
 -1.0830509e-01
  5.5071336e-01
 -1.6818572e-02
 -7.2635437e-04
  3.4871897e-05
 -2.1235205e-01
  3.5000744e-01
 -8.4687097e-05
 -1.1762585e-01
 -1.3260806e-05
  5.9006296e-02
  4.9096451e-04
  1.1341686e-04
 -8.4891697e-05
  4.9703015e-04
 -4.7260455e-05
  6.8498077e-05
  3.4026305e-06
  7.4807496e-05
  1.0094421e-04
 -4.8751795e-06
 -6.6695310e-07
  6.4276037e-06
  7.0507471e-05
  3.6275604e-05
 -7.3156982e-05
  1.5814026e-05
  5.4668722e-05
 -9.6725118e-05
  6.4217144e-05
  7.1019851e-05
 -3.8691913e-05
  1.2437114e-04
  2.2738196e-03
 -1.4099101e-05
 -2.5472096e-05
 -5.9543268e-05
  1.4805427e-04
 -9.5588381e-05
  5.4227644e-06
 -4.2882362e-05
  1.5321764e-05
 -1.0893471e-04
 -2.3109202e-05
  1.3694119e-04
 -3.2498926e-04
  1.9999547e-04
  8.5427761e-01
  5.8343750e-03
 -7.1364701e-01
 -9.1257101e-01
 -1.0528147e+00
 -4.6267235e-01
  2.3922430e-02
  5.9012711e-01
  6.2532884e-01
  9.4615951e-02
  3.2517200e-03
  4.6721771e-02
  2.7913919e-01
 -6.1182175e-02
  5.2151288e-04
  4.6330955e-02
  7.7186957e-02
  2.8528100e-01
 -5.0809938e-01
 -1.2461892e-04
  7.1533434e-02
  2.1500440e-01
  3.4303376e-01
  7.5565398e-02
 -2.2523619e-02
  1.5229527e-04
 -3.2508528e-05
 -1.1843605e-01
  3.7324473e-02
 -2.6350375e-05
  9.2615701e-05
 -8.8006971e-05
  9.7482211e-05
 -1.4016684e-04
 -2.6068123e-05
 -4.4134766e-05
 -4.3867544e-06
  3.1467693e-04
  2.9516301e-05
  1.1798878e-04
  8.0158279e-05
  9.2260241e-05
  2.3410204e-05
  9.5830561e-05
  6.0013521e-05
  3.3812052e-01
 -3.1983102e-05
  3.0014973e-05
 -3.4862689e-05
  8.9239853e-05
  5.6107587e-05
  4.9482936e-05
  1.8321681e-04
 -6.4234664e-05
 -2.6517791e-05
 -5.2996398e-05
  3.6222133e-05
 -2.2213050e-04
  1.5112106e-04
 -3.7416394e-05
  5.3712574e-05
 -5.1661831e-05
  4.4459310e-05
  7.1652385e-06
  4.9232738e-05
  2.0009729e-05
 -3.7720984e-05
 -1.7230611e-04
  2.9043376e-05
  3.1649059e-05
  1.0367537e-04
 -5.4134466e-06
  2.3250725e-05
  9.3395909e-07
 -1.7845314e-05
 -1.0842759e-04
 -4.9134673e-05
  2.5264866e-04
 -2.0534813e-05
 -2.2467882e-05
 -3.0998432e-05
 -1.7925893e-04
  1.6847672e-04
 -2.6035763e-05
 -3.6381902e-05
 -4.7556099e-05
  3.2416730e-05
 -4.8526148e-05
 -1.3425917e-04
  8.3156838e-06
 -8.6130756e-05
  2.3991954e-05
  4.1075589e-05
  6.9420494e-06
  3.8021139e-05
  1.4142242e-04
 -7.5501091e-05
  3.8032777e-06
  9.7640714e-06
  1.2595216e-05
 -7.7054312e-05
 -1.4983336e-05
  3.9821956e-05
  2.4774254e-04
  1.0833024e-04
 -5.1272931e-05
  9.7127422e-06
 -1.9516830e-05
  2.3621871e-05
  2.9163137e-05
  2.4487426e-05
 -1.4577163e-04
  1.6627146e-04
 -2.5868107e-04
  1.8574296e-05
  5.4548545e-05
  4.7110090e-05
 -6.0495375e-05
  1.2219594e-04
  4.3515629e-05
  4.3577448e-01
 -1.9260412e-01
 -4.3007377e-01
 -1.2649310e+00
  8.8374400e-01
  1.4188933e-01
 -2.2186132e-06
 -2.1222762e-04
 -1.6121237e-01
 -8.7219751e-01
  7.1398114e-05
  3.9490883e-04
  8.7077315e-06
  5.2105571e-04
 -3.2561895e-01
  1.1391419e-02
  3.8571941e-04
  4.0269867e-04
  2.4779412e-01
  8.3335198e-02
 -3.5849778e-04
  8.9429566e-05
  3.4226396e-05
 -2.7098889e-02
  5.8835409e-05
  2.4234600e-04
  3.4021906e-04
 -2.4730922e-04
  4.2223764e-05
 -2.5246893e-05
 -2.1130194e-01
 -4.6754012e-01
  8.0676448e-01
  2.7784523e-01
  1.7533083e-01
  1.7716562e+00
  3.6094442e-02
  1.4294723e-01
  3.1036848e-01
 -4.7090817e-03
  7.9190707e-01
 -3.0476665e-01
 -5.1929003e-01
  3.7779993e-01
  2.1410272e-03
  1.9128764e-01
 -5.0026435e-01
 -9.9839878e-01
  2.0415318e-01
  4.5727538e-05
  6.3412301e-02
 -1.9951001e-01
 -7.0105487e-01
  3.0524090e-01
  2.8000945e-02
 -1.1107123e-04
 -7.5687416e-02
  1.8131548e-01
 -1.4172620e-02
  3.9897270e-05
 -1.1974649e-04
 -1.7261435e-04
  8.7733104e-05
  4.9904775e-05
  1.6313662e-04
  7.9956997e-05
  8.8376903e-05
  4.3886583e-05
 -2.5237021e-05
 -2.6724528e-04
  2.6236421e-06
 -2.1116786e-05
  1.5881995e-05
  1.1884668e-04
  1.0825325e-04
  4.2635420e-05
  3.0804007e-05
  9.4726995e-05
  5.2691124e-05
  1.0208133e-05
 -2.3255548e-04
  2.3625689e-05
  1.1803516e-04
  3.1516338e-05
  3.3344491e-05
 -3.5257173e-05
 -4.2549593e-05
  5.5538785e-05
 -4.4240023e-05
  1.1288835e-04
 -5.5499488e-05
 -1.4868297e-04
  5.3700689e-05
  4.2084874e-05
  8.0017468e-05
 -1.0537318e-05
 -3.6761390e-05
  4.3130113e-04
 -1.8878221e-05
 -1.0825526e-04
 -3.1287360e-05
  2.7344550e-04
 -5.9885420e-05
 -1.0304633e-04
  3.5847861e-05
  1.2607004e-04
  7.3315954e-05
 -4.4322293e-05
  1.3099748e-05
 -4.0960472e-07
 -2.0612893e-05
 -1.4330972e-05
  4.4621018e-05
 -1.9660845e-04
  1.0136329e-04
  2.0085376e-05
  9.3226736e-05
 -3.5239635e-05
 -6.7768046e-06
  3.9172606e-05
  6.8950583e-03
  5.3215012e-05
 -7.7797609e-05
 -3.5018110e-01
 -1.0393752e-04
  6.3759513e-02
 -1.1213854e-04
  5.2377224e-01
 -1.3094756e-05
 -7.8507932e-05
  3.6615293e-04
 -3.5762172e-05
  5.8976989e-06
  1.0930536e-05
 -3.9399902e-06
  2.2512631e-02
  6.2295570e-05
  3.2570641e-02
  4.1002137e-04
  2.1711162e-04
 -1.2290626e-04
  3.8178908e-04
  1.0921885e-04
 -1.7108404e-04
 -1.1348680e-04
  1.6510348e-04
  8.6447188e-05
 -1.3841518e-04
  4.8216811e-05
 -4.9738999e-05
  2.2340646e-06
 -2.3003446e-05
 -6.4639913e-05
 -3.1504165e-05
  3.5009522e-05
 -5.4425159e-06
 -3.8246784e-05
  2.3623559e-05
 -1.0734807e-04
 -4.4897319e-05
  2.9499649e-06
  9.1045977e-06
 -1.3514698e-04
  9.2244569e-05
 -1.3320899e-05
  3.4536668e-05
 -6.9950518e-05
 -2.3905577e-05
 -9.3213850e-05
  1.1984895e-04
  4.1220114e-06
  4.9446346e-05
  1.4295350e-04
  4.6666933e-04
  7.4728068e-06
  1.0272143e-05
  1.0073303e-04
  6.5352688e-05
  5.0896797e-05
 -1.4549210e-04
  1.0658075e-01
  3.3670748e-04
 -7.0937413e-01
 -2.4789546e-04
  1.0892875e+00
  2.2181214e-01
  8.7691071e-03
 -4.3992091e-05
 -3.4344423e-01
  6.7705158e-05
  2.9952042e-03
  7.3968425e-02
  1.6842528e-01
  2.3418394e-01
  2.2937087e-05
  8.1267971e-01
  9.3723364e-02
  2.5793070e-01
 -4.3733785e-01
 -2.5123891e-01
  4.8521738e-02
  5.7790596e-02
  3.5752513e-04
 -3.8386345e-01
 -4.1600424e-04
  1.2869006e-06
  2.5957983e-03
 -3.0142177e-04
  7.9917535e-02
  1.2291563e-05
  6.0441093e-05
 -5.4447675e-05
 -6.5856193e-06
 -4.8704242e-06
 -4.2574018e-05
  3.5375997e-05
 -8.4284467e-05
  5.9260543e-05
  2.3685816e-06
  5.8662440e-06
  1.7364949e-04
  1.0969763e-05
 -1.3036155e-06
  6.6963294e-05
 -2.8948134e-04
 -3.9995956e-04
  6.8150926e-05
  2.9704976e-04
  5.2586915e-05
 -7.8701021e-05
 -6.2096893e-05
  7.5533986e-05
  1.1525696e-04
 -3.3918532e-05
 -3.9259467e-05
  3.3937951e-05
  1.3554406e-04
  1.5128810e-04
  3.3359291e-05
 -8.1347271e-06
 -1.3306124e+00
 -1.1226636e+00
  2.2096005e-01
 -5.9296256e-01
  8.5773468e-01
 -1.0484940e+00
  2.0105965e-05
 -4.6277139e-05
  1.2710422e+00
  2.9213780e-01
 -5.9339281e-02
 -2.9411374e-04
 -2.9846445e-01
 -3.8436968e-02
  2.2526160e-01
  6.6047716e-01
  1.5894708e-04
 -1.3464606e-01
  2.0131068e-01
 -1.4118563e-01
 -4.9592562e-02
 -1.7372878e-04
 -2.3872752e-01
  1.4084730e-01
  6.8253838e-03
  1.2258791e-03
  6.0336033e-06
  2.0272434e-02
 -2.8300576e-04
 -6.9792557e-05
 -8.8043278e-05
  3.6724916e-05
 -9.4426563e-05
 -1.0116884e-05
 -9.0806083e-05
  2.3555129e-05
 -1.8483006e-05
 -4.4703738e-05
 -2.2654756e-06
 -4.5278739e-05
  5.5859258e-05
  9.2931055e-05
 -1.6552565e-04
  2.3971970e-05
  1.6687953e-04
  4.3579508e-05
  9.7488646e-06
  3.1960986e-05
  5.0768511e-05
 -1.8283044e-05
 -4.0294355e-05
  5.8618602e-06
  7.9051577e-05
 -5.4132954e-05
 -6.1080851e-07
 -3.4623574e-06
  5.5739718e-05
  6.3666856e-05
 -2.4806504e-04
 -4.8770682e-05
 -1.5240251e-01
 -3.4097815e-05
  2.0450699e-01
  1.5160937e+00
 -7.5405592e-01
 -1.5349269e-04
  8.4032552e-05
  3.9602399e-01
  2.2472036e-01
  3.9173263e-01
  1.5939862e-01
 -6.0728680e-02
  2.9430821e-05
 -5.1190886e-03
  1.3418695e+00
  1.2470032e+00
 -1.1477391e-02
 -1.2062378e-04
  1.5783972e-01
  5.4204267e-01
 -1.5068011e-01
 -1.3159308e-01
 -8.6636603e-05
 -1.5023901e-04
 -3.4503970e-02
 -9.5611998e-05
 -7.5096272e-05
  8.4488027e-05
 -5.5537745e-04
 -8.1891367e-06
 -3.0785552e-05
 -5.6804756e-06
  6.8222316e-06
 -6.6188397e-05
 -5.8331079e-05
  8.7501816e-05
 -9.2771275e-05
  2.7077740e-05
  3.6967340e-05
 -1.8197270e-04
  5.6412762e-05
 -3.7001242e-05
  8.7208682e-05
  3.6327372e-05
 -2.4230992e-05
 -3.6529087e-05
  1.5405001e-05
 -3.2168637e-06
 -5.8940022e-05
  2.7563570e-05
  1.9653322e-05
 -4.3973378e-05
 -3.1076101e-04
  1.2046535e-04
  5.4522675e-06
 -3.2735516e-05
  8.6442626e-05
 -2.7511645e-05
  3.9234469e-06
  4.5645153e-05
 -5.0095852e-05
  9.8179553e-05
  2.1036507e-05
 -2.0406878e-05
 -2.4955611e-05
  2.2911992e-05
  9.7154814e-05
  5.9801496e-05
 -1.4735032e-04
  2.4994677e-05
  6.6133762e-05
  8.4798739e-05
 -2.6321681e-05
  3.6931990e-06
  6.3777447e-06
  2.6831205e-05
  1.7367104e-07
  8.1310400e-06
 -4.5134619e-04
  1.0400462e-04
  1.5329004e-05
  5.4962523e-08
  1.3948018e-04
 -5.4286862e-05
 -2.7784419e-05
  1.2880690e-04
 -4.6815338e-05
  3.8361817e-05
  1.6880609e-04
 -6.6874309e-05
 -6.8593530e-05
  8.4389876e-06
 -1.6900699e-04
  1.3934086e-04
  9.9750423e-06
 -1.3063029e-05
  1.1090149e-05
  1.3442111e-04
 -8.2755178e-06
 -8.6164800e-05
  5.5459386e-06
 -7.0057326e-06
 -9.4783725e-05
 -1.7925349e-05
  1.5217239e-04
  5.5022494e-05
  3.8201641e-05
 -4.5355342e-04
  2.9207773e-05
 -3.6422527e-05
 -1.2872879e-04
 -3.7563681e-05
  7.3847310e-05
 -1.5029017e-04
 -3.3095014e-06
  1.5972335e-05
 -1.3523681e-05
  8.8649052e-05
  1.4508901e-05
 -9.8160008e-06
  9.1169661e-01
 -2.2638291e-01
  1.0866423e+00
  8.1242108e-01
 -8.6485338e-01
 -1.5215711e-01
 -5.1191586e-01
 -5.7637256e-01
  2.4364784e-01
  9.1030425e-01
  2.2136603e-02
 -1.7134263e-01
 -1.2129460e-03
 -1.4570159e-01
 -9.4899133e-02
  7.7955556e-01
 -9.4754219e-02
 -1.2738934e-01
  6.2658060e-01
  1.1680391e-01
  6.8423659e-01
 -3.9722461e-01
 -3.2763499e-01
 -9.0447061e-02
  3.4668937e-02
 -8.6116088e-05
 -1.0743487e-02
  3.1737280e-03
 -4.7008094e-04
 -2.0474289e-04
 -1.3342038e+00
  7.2191739e-01
 -3.8321835e-01
 -1.4815389e-01
 -2.5670519e-01
 -3.3044505e-01
  1.5728757e-01
  1.3388199e+00
 -6.0236144e-01
 -2.0348652e-01
 -2.6297417e-01
  1.4618522e-03
  1.0546031e+00
  3.3133063e-01
  9.2749816e-01
  3.8940085e-03
  2.3965467e-02
  4.5176187e-01
 -1.2895553e-01
  8.7530696e-01
  7.0246392e-01
 -1.6810058e-04
  2.3152246e-05
  7.6309067e-01
  1.4367130e-01
 -2.7531705e-05
  2.6702576e-03
 -1.2993225e-01
  1.4606048e-04
 -1.7545129e-04
 -1.4401328e-04
  6.0985280e-06
 -2.5191289e-06
  4.9599850e-05
  2.3667386e-05
  2.8143819e-05
  9.2803857e-06
  3.2478427e-05
  4.2043168e-05
  8.3499741e-05
 -4.8531725e-05
  2.1822934e-05
  1.0341021e-04
  1.5548292e-05
  7.5148891e-05
  1.2760313e-05
 -7.7572513e-05
 -5.4581214e-06
 -5.4371489e-05
  6.3628300e-05
 -1.9596696e-04
 -9.9842546e-05
 -1.1395045e-04
 -5.9825656e-05
 -6.1054619e-05
  6.7135494e-05
 -5.7711928e-05
  2.0977251e-04
 -4.7437537e-05
  1.0644089e-04
  4.5380214e-01
  1.1344724e-04
  4.6345371e-01
  1.1034430e-01
 -1.6758392e+00
 -2.7408443e-05
 -2.4089643e-01
 -3.9563095e-03
 -1.2024410e+00
 -6.2413327e-02
 -9.0479771e-05
 -2.2238037e-01
 -1.4633597e-01
 -1.3886264e-01
 -3.2866683e-02
 -5.6619024e-01
 -4.7645986e-01
 -4.9754465e-01
 -5.7803467e-04
  1.1947373e-01
 -3.4140147e-02
 -2.8258696e-01
 -6.1409408e-04
  6.3366890e-01
  7.7315108e-03
  5.3787237e-05
 -8.2801830e-04
  3.5622750e-05
 -1.2995853e-01
  4.2261883e-05
 -3.4211531e-01
 -1.5388973e+00
 -1.5344085e+00
  1.6755853e+00
 -9.3795168e-01
  1.5835922e+00
  2.9591370e-01
 -3.1718177e-01
  3.1056032e-01
 -9.8844238e-02
  2.5602657e-01
 -4.8112895e-02
 -1.5750907e-01
  2.1487008e-01
  8.6971378e-01
  4.3065882e-01
 -1.6012967e-01
  4.8943541e-05
 -4.1423824e-01
 -1.3131802e-01
 -1.5595256e-01
 -8.0133021e-01
 -3.0936331e-01
 -3.2222630e-05
  1.3903352e-02
 -4.2973985e-05
 -9.0819644e-03
  1.0483880e-01
 -1.8876675e-04
  5.3258830e-01
 -1.3730268e-01
 -7.2715396e-01
 -2.0012408e-01
 -2.4638688e-03
 -1.0234903e+00
 -3.2783875e-01
  9.0060501e-05
  7.5844885e-04
 -1.5799295e-02
 -7.0973933e-02
 -1.4259165e-05
 -3.1200656e-01
  8.0633632e-05
 -1.0593009e-04
 -2.7456045e-01
  8.1726518e-03
  2.2591330e-02
  9.5889598e-02
  3.6447868e-02
  2.3285469e-01
  9.5571349e-06
  9.3634427e-04
 -3.7624981e-05
 -1.2473460e+00
 -1.3615126e-03
 -1.1059122e-04
  7.2938361e-05
 -4.1906475e-05
  1.8391361e-04
 -1.7798062e-05
  6.4696425e-05
  1.6343440e-06
 -3.9464533e-01
 -3.8950527e-01
  1.1081947e-01
  1.9669886e-01
 -3.2616092e-05
  1.0954051e-01
 -2.7325576e-02
  1.1839599e-03
  8.7283966e-05
  2.8601330e-04
 -1.0165141e-04
  8.9432404e-05
 -2.0189264e-05
  6.5466523e-02
  4.7861139e-04
  3.7876816e-04
  2.4512556e-04
 -1.2492067e-05
  2.5810342e-02
  9.1267946e-05
  6.7459630e-05
 -2.5811300e-02
 -2.1693482e-04
 -1.5608534e-04
  1.5400910e-04
 -2.0071922e-04
 -2.9220826e-05
  3.1017661e-04
  6.1280280e-01
 -4.3688688e+00
 -5.6342348e-02
  5.2688450e-01
 -9.4203484e-01
 -1.0195224e+00
  2.6638207e-01
 -1.9751757e-01
  5.0477654e-02
 -1.1050925e-01
 -7.5134677e-01
  1.8720321e-01
  2.0273021e-01
 -9.7361714e-02
  7.7431303e-01
 -9.5548874e-01
  2.1221383e-01
  2.7895570e-03
 -3.1402022e-01
 -5.3460214e-02
  1.7010282e-01
  1.5305066e-04
 -1.0081794e-01
  7.6471262e-02
  1.4632067e-02
 -4.6782807e-05
  8.2619168e-04
 -3.6282513e-02
  7.1059592e-02
  4.1245449e-02
  1.7257693e-05
 -1.5330268e-04
 -3.6651611e-05
  5.6218187e-06
 -2.6337311e-05
  2.4275838e-05
 -3.9989267e-05
  2.8816998e-05
  1.5045927e-05
 -1.3627538e-04
 -1.9234312e-05
  9.8574092e-05
  5.0783758e-05
  1.8575755e-06
  2.4718587e-05
 -2.1524652e-04
  2.4323422e-06
  9.7622296e-07
  1.5996302e-04
  2.7738215e-05
  7.4279582e-05
 -3.5041499e-05
  2.6054349e-05
  2.3913743e-05
 -7.2984090e-05
 -4.8321945e-05
  9.3978284e-05
 -1.1564966e-04
 -7.1445887e-05
 -7.9714329e-05
 -1.9882811e-04
  1.8373059e-05
 -2.8833943e-05
  6.8748923e-05
  1.4819670e-05
 -9.7552675e-06
 -7.9902558e-05
 -4.7490841e-05
  1.2619785e-04
  5.6005691e-05
  1.2368736e-04
  1.8357625e-04
  1.9018473e-05
 -8.7891967e-05
 -1.0612228e-04
 -4.3164186e-05
  4.2009169e-06
  2.1825654e-05
  1.1770696e-04
  7.8123921e-06
 -1.8655219e-05
  7.8254066e-05
  3.8166148e-05
 -1.6894190e-05
  1.2612651e-04
 -8.7419277e-05
  2.0682019e-07
  1.2599388e-05
  3.9354153e-04
  1.2036255e-05
 -5.5530953e-05
 -1.7744029e-04
  4.4375465e-05
  5.5628760e-05
 -4.2109874e-05
 -1.3083503e-05
 -5.2783162e-06
  1.1571806e-04
  1.7637036e-05
 -2.5477252e-06
  4.9200817e-06
  7.8833004e-04
 -8.2390339e-05
  1.2550995e-04
 -1.2130889e-04
  8.0919584e-05
 -3.1028401e-05
 -1.6724887e-05
 -6.2613904e-06
 -2.5114608e-05
  2.4840423e-05
  3.0637380e-01
  5.9896993e-05
 -2.1653919e-04
  1.6211715e-04
  8.9711924e-05
 -1.4595194e-05
  1.6215738e-04
  4.6172951e-05
  1.2768167e-05
 -9.1165704e-05
 -1.1014391e-05
  8.2273531e-05
 -7.4395866e-05
 -1.5943915e-04
  4.3474374e-05
  1.0094316e-04
 -1.8120132e-04
  1.3372612e-05
  3.2626347e-05
 -3.2750329e-05
  5.7587704e-06
 -1.0589979e-04
  1.2126449e-04
  9.6098920e-05
  3.1406726e-05
  1.1224096e-04
  1.1083409e-04
  9.8073715e-06
  2.8218818e-04
  1.4156246e-04
 -3.9126746e-05
  1.2291727e-05
 -5.0993218e-05
 -1.6768656e-05
  4.7383190e-05
 -9.0831927e-06
 -9.6318281e-06
 -5.5754201e-05
 -2.2912463e-04
  1.2283045e-05
 -2.0346273e-05
 -3.7837592e-05
  7.3753778e-05
 -9.0858703e-05
 -4.7227288e-05
 -8.7494198e-05
  3.9365274e-05
 -4.0967730e-05
  3.7878352e-05
 -2.7099108e-05
  1.3423856e-06
  6.4187338e-06
 -6.7629378e-05
 -9.1203110e-05
 -3.4230179e-06
 -1.6459600e-05
  5.6940782e-05
  9.5199219e-05
  5.5008946e-05
 -1.9674374e-04
 -1.1128627e-05
  4.4318760e-05
 -2.2483450e-04
  1.0027175e-04
  6.4356587e-05
  2.2792918e-05
  4.2114549e-05
  1.0096344e-05
 -3.2597876e-04
  1.9784311e-04
 -8.7560809e-05
  2.8638126e-05
 -1.2410566e-04
 -6.2580664e-05
  3.6269262e-06
 -2.5627806e-04
  3.9807725e-05
  8.8016131e-06
  8.6550601e-05
 -1.7724795e-05
  1.1217950e-05
  5.4925429e-05
 -7.6038436e-05
 -5.3798656e-05
 -1.7133384e-04
 -2.0074896e-05
  9.5425938e-05
  2.7449510e-06
  1.1808695e-05
 -5.6627861e-05
 -5.4368662e-05
 -2.8877150e-05
  1.8260661e-04
  1.3667518e-05
 -1.7608987e-04
  6.2284662e-06
 -1.3756618e-04
  2.2123770e-04
 -4.4300385e-05
 -5.7700551e-01
 -1.5935476e-03
  2.5860792e-01
  1.6390361e+00
  1.9237612e+00
 -1.3265188e+00
 -9.4229244e-02
 -1.2246631e+00
 -7.6431578e-01
  2.9036952e-03
 -5.4567373e-01
 -1.5204109e-04
 -3.6889628e-01
 -2.2263680e-02
 -3.4315947e-02
 -1.0542523e+00
  2.6034055e-05
 -4.8131719e-03
  9.3904518e-02
 -1.4137365e-04
 -4.6049882e-02
 -9.3823528e-06
 -2.0125433e-04
  1.5301353e-04
 -1.7301245e-01
  1.4153228e-04
 -1.5671272e-04
  5.4477504e-04
 -6.0728885e-04
 -4.6504432e-05
  2.4603331e-05
 -2.6848844e-01
  9.8078948e-05
  1.0813880e-04
 -3.5302401e-06
  6.6283894e-05
  1.0044623e-04
  7.3051218e-05
 -5.3674173e-01
 -2.0296855e-01
  1.6821568e-05
  5.8479378e-05
 -1.7499951e-05
  6.9643006e-06
 -6.5750337e-06
 -4.8086390e-01
 -8.5490079e-05
  1.4509102e+00
  2.6856128e-06
  3.2238648e-05
 -4.5566638e-05
  3.5033140e-01
 -1.0526170e+00
 -2.3682883e-06
  2.6157169e-04
  4.6911269e-01
 -2.3899116e-05
 -7.5830609e-01
  1.0773916e-04
  1.3619342e-01
  4.6732268e-05
 -1.6737123e-01
 -1.4147372e-04
 -1.0926052e-04
 -4.0311013e-05
 -2.9566109e-01
  8.5899520e-01
 -8.5898093e-05
  1.2287755e+00
  9.3950343e-01
  1.0224197e-05
  2.9153630e-04
 -2.5814006e-01
  1.3082780e-05
 -2.4807907e-05
  1.9735769e-05
  3.8093865e-05
 -7.5136595e-05
 -5.1227442e-05
 -2.1467190e+00
 -3.1634667e-05
  7.6167762e-01
  6.2666513e-05
  2.0314507e-04
 -2.2575674e-05
  4.5041972e-05
 -6.4090862e-05
 -4.0041592e-05
  1.8061380e+00
  1.2593037e+00
 -1.3239963e-04
  4.6363994e-01
  4.4830147e-05
 -9.2068920e-05
  1.1562351e-04
 -1.2493941e+00
  3.1954856e-05
  1.5969249e+00
  1.7466952e-01
  1.2870793e-05
  1.5830405e-01
  9.2304516e-01
 -2.3495071e+00
  1.4849326e-04
 -8.2550003e-05
  6.2887877e-01
 -1.6320424e-04
  1.0135010e+00
 -2.1230299e-02
 -1.0453751e+00
 -6.3442618e-05
 -1.0563585e+00
  1.0220600e-05
  4.9459336e-06
 -7.1095046e-06
 -1.5773337e+00
  1.5072892e+00
 -1.1620373e-05
 -1.3171853e+00
 -2.1107116e+00
  9.6366757e-01
  6.9466883e-01
  1.5587798e+00
 -1.1213345e-04
  1.0315904e-04
  2.1499906e-04
 -1.4991475e-04
 -4.1555933e-05
 -2.0046544e-04
 -1.1887382e+00
  5.3703845e-01
 -2.9780065e-05
 -5.0320673e-06
  2.8019949e-04
 -1.9623264e-04
  1.9962965e-04
  1.4760494e-04
  2.7510003e-05
  2.6834116e-04
 -1.1048546e-04
 -4.3266849e-04
 -2.8086159e-05
 -1.1126179e-04
 -3.4220528e-05
  5.7725007e-05
 -2.6367057e-05
  3.6576559e-05
  1.0792173e-04
  4.6888778e-07
  8.8727051e-05
 -6.4774023e-05
  1.2769399e-04
  3.6516150e-05
 -3.5337362e-05
  1.2010360e-04
  3.6814105e-04
 -5.8737655e-06
  5.8539939e-05
 -1.0881697e-04
  8.6041728e-05
  8.2050195e-05
  1.3746331e-04
 -3.4634213e-05
  1.3167143e-04
  8.0589503e-05
 -3.5561021e-05
  2.1555880e-04
 -3.3093322e-04
 -1.4566381e-04
 -5.5278713e-05
  1.9964061e-04
 -2.0035192e-04
 -1.0605860e-04
 -9.2832859e-05
  4.1338015e-05
 -2.7079645e-06
 -1.1917985e-04
  7.3606214e-05
  9.7116543e-05
 -5.7479472e-05
  1.8903515e-05
 -7.9241960e-05
 -3.6544232e-05
 -9.2398426e-05
 -1.0532533e-04
 -1.2328922e-04
  2.8731667e-05
 -7.5352466e-05
  1.8293670e-04
  4.2963016e-05
  1.6255077e-02
 -1.2635659e-04
 -4.2991887e-05
 -2.7053266e-05
 -3.5009427e-05
 -4.9399729e-05
  9.3104290e-06
 -3.3684941e-05
 -1.2592210e-05
  1.8435400e-06
  4.9390172e-05
  5.4754975e-05
  2.3029566e-05
  2.1713982e-05
  5.4043951e-05
  3.0968801e-04
 -1.1972293e-04
 -3.1980773e-05
 -5.3354855e-05
 -2.2067119e-04
 -1.7014290e-05
 -1.8860414e-04
  2.9307206e-05
 -1.4194748e-05
  6.1182342e-05
  3.4111639e-04
  2.2177910e-05
  4.8231210e-05
 -1.8909751e-04
 -8.1882950e-05
 -2.1214232e-04
 -6.0429178e-05
 -1.0315960e-04
  9.1577313e-05
  3.1672922e-04
  3.7107202e-06
 -3.8227045e-06
 -4.8111295e-05
  8.2453465e-05
 -1.0428718e-04
 -9.2198650e-05
  5.5790490e-05
 -4.8997538e-04
  1.0747950e-04
  1.6194359e-04
 -6.1427168e-06
  9.5379386e-05
  3.2930737e-05
 -5.6621437e-05
  6.5596441e-06
 -1.3347667e-05
  1.4012682e-04
 -6.3165753e-05
  2.0776689e-04
  1.8418863e-04
 -1.3513461e-05
 -6.2850333e-04
 -4.0761424e-05
  3.4269530e-04
  4.0640982e-05
 -2.8587481e-01
  1.2734349e-04
 -1.1856723e-04
 -4.5884229e-04
 -1.6230590e-05
 -6.6934852e-05
  3.2125950e-05
 -5.3812041e-06
  5.8548991e-05
 -7.7172772e-05
  3.9490042e-05
 -2.7955935e-05
 -4.8445585e-05
 -1.4331024e-04
 -2.6986265e-04
  4.2406216e-05
 -1.3912763e-05
 -2.2666758e-05
 -2.4019057e-05
 -5.2751165e-07
  9.2911121e-04
  1.0524459e-04
 -2.3235411e-06
 -7.7437271e-06
  8.7896697e-05
 -2.9164739e-05
  7.8730758e-05
  2.1173297e-04
  6.8903217e-05
 -3.2622321e-04
 -4.0338995e-04
 -1.9206502e-05
  2.1072250e-04
 -3.5307440e-04
 -6.9405549e-05
 -5.3664338e-05
 -3.0465626e-05
  1.0913018e-04
  3.4301083e-05
 -3.6584875e-05
  1.4880221e-04
  1.1489930e-04
  1.8811332e-04
  1.9735987e-04
 -1.7564638e-04
  5.0756652e-03
 -1.7250056e-04
  3.2786600e-04
 -7.9603524e-05
  7.6391059e-01
  3.8759864e-04
  9.6260999e-05
  6.9074209e-05
  6.7400011e-05
  6.9021980e-06
  1.0492882e-05
  1.9873522e-04
 -1.1298933e-04
 -1.5960827e-04
  1.2009745e-05
 -6.2575018e-05
  9.7085343e-05
 -2.9615025e-05
 -1.0739965e-06
 -4.6860256e-05
 -2.6829097e-05
  1.3631962e-04
  6.5066808e-05
 -1.9836129e-05
  1.8459134e-04
 -1.8361953e-04
  1.2250715e-04
 -1.3029503e-05
  1.1775354e-05
 -1.3724362e-04
 -9.8655408e-05
  7.4689224e-06
  1.9664924e-04
  1.3588042e-05
 -2.8257913e-05
  1.5349248e-04
 -2.6008322e-05
 -6.2413819e-05
 -1.1291649e-04
  1.0104764e-05
 -1.8342464e-04
 -1.1595147e-04
 -9.6479256e-05
  3.3881002e-05
 -1.0673608e-04
  2.1186922e-01
 -3.1267086e-04
 -6.9552004e-02
  8.5162565e-02
  1.1740731e-05
  1.2738043e-05
 -2.4147803e-05
  1.2891027e-04
  1.8853288e-02
  3.3022527e-05
 -3.7404816e-04
  2.3573350e-04
 -8.4752370e-05
  3.1476423e-01
 -1.1217751e-01
  2.7390422e-05
 -9.4998133e-05
 -4.4475324e-05
  6.3775406e-05
 -3.0653521e-01
 -2.2619038e-03
 -3.7562386e-05
 -2.7170187e-04
  1.7761717e-04
 -3.4817742e-05
  6.4491003e-05
  1.6321414e-04
 -1.2298326e-04
 -9.3997517e-07
  4.2530868e-04
  5.2225034e-05
  2.8869428e-05
 -4.0985615e-05
 -5.7614892e-04
  1.8334806e-05
  7.0407281e-05
  7.3284267e-05
 -1.3718057e-04
  1.5895326e-06
  1.6193064e-05
  6.9642359e-05
 -1.3344981e-04
  7.3142623e-06
 -2.9938979e-04
  1.5890012e-04
  1.7116846e-04
  3.6041147e-05
 -7.5951888e-05
  4.7020640e-05
 -4.3132228e-01
  3.2763819e-05
 -7.2103619e-05
 -1.6134362e-04
 -2.6055983e-05
  1.1843238e-04
  1.3864323e-04
 -2.3905006e-06
  2.0105571e-04
  1.0555246e-04
  1.3335485e-05
  4.6463891e-05
 -4.9675167e-05
 -2.2232813e-05
  2.8202654e-04
 -4.8444886e-05
 -2.7732574e-04
  4.8173661e-08
  7.5414078e-05
  1.9125815e-05
  1.6416560e-04
 -1.1798067e-04
 -1.7791668e-05
 -4.7148558e-05
 -9.2947470e-05
  7.8095465e-05
  5.0494896e-06
 -3.4333065e-05
 -1.3396305e-04
 -1.8291091e-04
 -1.5156413e-04
  2.5859030e-04
  4.0528553e-06
  5.9489580e-06
 -7.2498580e-05
 -3.0049510e-05
  5.5450269e-06
  1.9133965e-06
 -2.7969072e-05
  7.5866214e-05
  6.2800923e-06
  7.5997025e-01
  2.2502992e+00
  1.8295361e+00
 -7.4935353e-01
 -1.4230466e+00
 -2.8512219e-01
  3.5572371e-01
  9.4065708e-01
  3.7533784e-01
  6.0520065e-01
 -7.7838975e-01
  2.2515344e-02
  3.2219639e-01
 -9.4072604e-01
  1.3100041e+00
 -5.0533783e-01
  1.9101647e+00
  4.0575694e-03
 -1.1366014e+00
  1.9876404e+00
 -4.1702247e-01
  8.4689283e-01
 -3.9469877e-01
 -1.6515188e+00
  3.1594141e+00
 -5.9632881e-04
 -1.8297320e-02
 -1.8571244e-01
  3.5953680e-01
 -2.3158163e-02
  1.3172679e+00
 -7.3601906e-03
 -2.0509462e+00
 -3.1940077e-02
  1.3656894e+00
 -1.0272554e-02
  1.4822264e-01
 -3.7719867e-01
  4.1487485e-01
  8.9872545e-01
  8.7652047e-04
  1.3704391e-01
  1.2244192e-03
  8.8656199e-01
  1.3712066e+00
 -2.9961416e-02
  8.2804105e-04
  3.2722494e-01
  3.6663181e-01
  3.9757907e-01
  6.7295739e-05
  2.0746244e-04
  1.6772904e-02
  6.5653199e-01
  9.0865773e-01
 -2.4777499e-04
  9.1871398e-04
  1.5047503e-04
  3.9669456e-05
  4.5820378e-04
  7.5337045e-02
 -1.7240433e-01
 -3.6153616e-04
  2.0197913e-01
  1.0541338e-04
  1.6332421e-04
  6.0751822e-06
  3.0279919e-04
  9.6206233e-02
 -1.0835852e-04
 -9.5305900e-04
  2.1762936e-04
 -9.1263893e-05
  1.8881878e-04
 -4.3051604e-02
  9.5007397e-02
  1.9860988e-04
 -6.5158430e-04
  4.2884386e-04
 -2.7677052e-02
 -3.8242289e-01
  6.6936445e-05
 -1.5733572e-02
  1.7683571e-05
 -1.0274481e-05
 -2.5712654e-05
  7.5531978e-05
 -1.6171993e-05
 -2.7044830e-04
  2.0100822e-05
  2.9804562e-05
 -2.4667414e-05
  1.4500804e-05
 -8.9596288e-05
 -2.1368459e-04
 -1.0850636e-04
 -3.9606835e-05
 -1.0967784e-04
  4.9972303e-05
 -9.0546680e-05
 -6.1818486e-05
 -8.7564556e-05
 -2.1240736e-05
 -2.0121001e-06
  2.0627001e-06
 -7.1929629e-05
  8.6153832e-06
 -4.8421218e-05
  2.8420155e-04
  2.5030933e-05
 -1.5304534e-04
  4.4055116e-05
 -8.5368838e-06
 -1.1418619e-04
 -1.5734653e-04
 -9.0791225e-05
  1.3574892e-04
 -7.1791151e-06
  1.7718146e-05
 -2.7898705e-04
 -9.5223026e-05
 -2.5086466e-04
  8.9990062e-06
  4.1340394e-05
  1.1164599e-04
 -1.1489235e-04
 -7.8374993e-05
  1.5079106e-04
 -2.1343297e-04
 -8.0849473e-05
  9.7483180e-06
  3.9542185e-05
 -2.0877911e-04
 -2.8752995e-04
  5.2167714e-05
  2.4269795e-05
 -5.8988157e-05
  1.8656143e-04
  1.0764557e-04
 -1.5249431e-04
 -2.4107356e-05
 -1.9506251e-05
 -2.2661936e-04
  1.5499616e-04
  4.5122586e-05
  4.3234257e-05
  5.3315889e-05
 -1.3510752e-05
 -1.1808826e-05
  3.4219138e-05
  1.0318629e-04
 -1.1066051e-04
 -9.2458446e-05
  4.0236344e-05
  5.2225430e-05
 -7.2585688e-05
 -1.9787098e-04
  6.9200680e-05
  2.1435066e-04
 -3.8380884e-05
 -2.0585656e-04
  7.5935845e-05
  1.9166028e-04
 -4.0424780e-05
  7.8859812e-05
 -4.9441194e-05
  1.6119602e-04
 -1.2602381e-05
  2.8219240e-05
 -1.5541613e-05
 -8.4653082e-05
  9.9897268e-05
 -7.5068354e-05
 -4.2952324e-04
  7.5618802e-05
  1.6529820e-04
 -2.8329907e-05
  2.2464244e-06
  1.0805893e-04
 -4.3240361e-05
 -4.6795973e-01
  1.1416091e-01
 -1.0019507e-03
 -1.7010523e-01
 -3.9163639e-05
  1.8489256e-05
 -1.0679476e+00
 -2.1480920e-04
 -1.6855270e-01
 -2.0082654e-01
 -3.9724717e-05
 -6.5196848e-01
  3.1525258e-03
 -3.4427711e-01
  5.6219172e-01
  2.3879932e-01
 -7.9695845e-01
  4.6911845e-01
 -9.0563051e-02
 -5.4939002e-01
  4.4157425e-01
 -2.9239625e-01
  4.0865156e-01
  8.6247422e-02
 -1.4530684e-01
  3.2081916e-06
  3.0943185e-01
 -1.4132667e-04
  2.2659611e-04
  1.6125198e-01
  2.6177514e-02
 -5.1040971e-01
 -5.1796412e-01
 -2.1548359e-01
 -5.1424164e-01
 -7.6691413e-01
 -2.6464126e-01
 -4.4202019e-02
 -5.6621057e-01
 -3.2141662e-01
 -1.2449671e+00
  5.3449357e-06
  2.8542680e-01
  8.2277462e-02
  1.6868446e+00
 -6.9951266e-01
 -5.0009226e-07
  3.5789016e-01
  8.3975103e-03
  1.2166660e+00
  2.4607991e-01
  1.3643420e-01
 -3.3124200e-01
 -8.7382996e-01
 -2.8301191e-01
 -1.5483770e-03
 -3.2546953e-04
 -2.7618706e-01
  6.9399679e-01
  3.4947723e-01
  6.7910255e-04
 -5.2861891e-05
  4.2801735e-04
  1.0729779e-05
  1.0666275e-04
  3.9727856e-05
 -3.0235184e-05
 -6.8930749e-05
 -1.1296373e-05
  4.9667258e-05
 -1.0804321e-04
  1.2271905e-04
  7.7352728e-05
 -1.6688782e-04
 -4.5650973e-05
  1.4222254e-06
  8.5337495e-05
 -8.7431792e-05
  1.1466328e-05
 -1.0378478e-04
  5.5544217e-05
 -1.5673630e-06
 -7.4718402e-05
  4.6062221e-05
 -2.7848114e-04
 -1.0825350e-04
 -2.6317233e-05
 -3.9909683e-05
 -7.6036689e-05
  7.4625008e-05
 -9.4589495e-06
  1.4234199e-04
 -3.9980994e-05
 -6.5427877e-05
  1.1030543e-04
  2.5936245e-04
  2.8182188e-04
 -2.8508619e-04
  2.0646359e-04
 -1.7495109e-05
  3.3091989e-04
  1.1866964e-04
 -2.1101499e-04
 -1.3923591e-05
  4.6722838e-05
  1.1596641e-04
 -8.4929030e-05
  3.3839333e-05
  3.3101231e-05
  1.9846782e-01
  2.3872450e-04
  2.0604650e-04
  1.3980936e-04
  6.9052287e-05
 -9.5638279e-05
  1.5309278e-06
 -2.9520064e-05
  4.2058153e-05
  1.2089057e-04
 -1.8088005e-05
 -1.2077831e+00
  3.7010309e-01
  1.2515059e-01
 -1.7483345e-01
 -5.0675776e-02
  1.3074867e-04
 -1.6088704e-04
  1.1172858e-04
 -2.9972598e-02
 -1.3446878e-02
  8.0651957e-01
  8.8613291e-05
 -1.7110218e-01
 -1.5914575e+00
 -1.1472510e-04
  5.7988179e-01
  1.5521147e-04
 -1.0769558e+00
 -2.9990414e-01
 -3.4313348e-01
  7.6283640e-01
 -1.2341112e-01
  5.9056580e-02
 -8.2302409e-01
 -2.6195273e-03
 -2.6096799e-05
  3.8748470e-04
  4.3537562e-05
  2.6905170e-04
 -1.3084726e-04
  1.3645604e-04
  7.4985262e-05
  1.0572543e-04
 -2.5966050e-04
 -4.3945674e-05
  1.5904447e-05
  3.5281097e-05
 -1.8472262e-04
  1.9328644e-04
 -1.4538218e-04
 -1.7612394e-04
 -1.2958038e-04
  6.1765182e-05
  7.8182835e-05
  7.2366841e-02
  2.6407666e-05
  1.9775682e-05
 -8.2835482e-05
  1.0415297e-04
 -5.8510745e-06
 -4.1235631e-05
 -1.5640808e-06
  1.1785901e-04
 -2.1472591e-04
 -2.4921386e-05
 -9.1171878e-06
 -1.3254758e-05
  1.3553328e-04
 -1.1759204e-05
 -6.5917528e-05
  1.5223731e-04
  9.2333412e-06
  5.1369410e-05
 -3.4341437e-04
  2.3079036e-04
  1.5937598e-05
 -3.8758887e-04
 -3.0066132e-05
 -4.7034209e-05
 -5.9539430e-05
  1.1906601e-04
 -8.2566905e-05
  6.1859631e-05
 -1.5035609e-04
 -1.1627510e-04
  1.5420630e-04
  1.1366020e-05
  2.0068821e-04
 -1.2170600e-04
  9.7245269e-05
 -3.6858621e-06
 -4.5101886e-05
  9.5726573e-05
  1.3042564e-04
  5.7268633e-05
 -1.2337788e-05
  1.0823678e-04
  1.5006433e-04
 -4.4145894e-05
  2.3716982e-04
 -5.9822298e-05
  8.4834746e-06
 -5.1661412e-04
 -1.5166203e-06
 -3.6059413e-05
  1.1684617e-05
 -1.0766699e-04
  1.8690810e-04
 -1.6695594e-06
 -3.7425280e-06
 -1.1833863e-04
 -7.5373864e-05
 -1.6260186e-04
 -1.5167052e-04
  1.6605806e-04
 -1.4927979e-04
 -5.3274471e-05
  3.9893353e-06
  4.2177540e-05
  7.4858926e-06
 -1.5772033e-05
 -2.3812898e-05
 -8.4983054e-05
 -9.3637027e-05
 -2.9746519e-04
  4.3410011e-05
  1.1369537e-05
 -3.0611649e-05
  5.5755092e-05
  4.3131292e-04
 -5.0228912e-01
  9.6897036e-01
  1.2189223e-01
 -1.1810166e+00
 -1.3631470e+00
 -1.4586474e-01
 -1.7796943e-01
 -1.8711129e-02
 -7.8545249e-04
  3.6963764e-01
 -4.0745991e-01
 -3.4333582e-04
 -4.1859973e-02
 -6.8521011e-01
 -5.6856769e-01
 -1.4432561e+00
 -2.6997229e-01
  5.1430009e-02
 -3.9129909e-03
  8.9957917e-01
  4.1316796e-02
 -7.3418784e-01
 -4.0188611e-01
 -2.7837778e-02
  5.0470144e-01
  1.3946554e-04
  2.4607980e-01
 -5.5068373e-05
  2.7982632e-04
  5.8783573e-01
  5.8135045e-01
 -6.0363509e-02
  3.0679989e-04
 -3.8043105e-05
 -1.0860324e+00
  1.1365560e-03
  4.3355289e-01
 -3.0215269e-01
 -6.5945154e-01
 -3.1383993e-04
 -1.4057266e-05
  1.8519408e-05
 -1.2615977e-03
 -5.7536870e-02
 -4.3252687e-04
  1.1474434e-02
  2.4798699e-05
  2.2705141e-01
 -8.9906047e-05
 -9.5995682e-01
  1.0674202e-04
  9.4952331e-05
  3.7811264e-01
 -2.8398794e-01
 -2.5731683e-01
  5.3980161e-06
  1.0557752e-04
 -1.4573267e-04
  1.0221178e-03
 -8.4346980e-03
  1.2063752e+00
 -2.1676196e-05
  2.2438735e-04
 -7.6620214e-02
 -1.4585170e+00
 -4.1511936e-05
 -3.5632303e-01
  1.0157562e-05
 -1.1735716e-06
 -4.6065247e-01
  4.5513309e-04
 -3.0551932e-03
 -1.5337819e-04
 -1.1608799e-04
  3.6775073e-01
 -1.0714303e-01
 -6.3215764e-03
 -4.6610776e-01
 -4.6863922e-01
 -9.0732053e-03
  4.1542025e-06
  8.3116993e-06
 -3.5628834e-01
 -9.9547714e-02
 -1.1215971e-01
  9.7434589e-05
 -7.5802171e-05
  1.9695661e-04
 -1.5873418e-04
  1.5229353e-04
  2.1030569e-01
  5.9414417e-01
 -1.0762668e+00
 -5.0142622e-01
 -1.1142635e-01
 -4.7499358e-05
 -5.4880941e-01
  1.4621049e-01
  1.1978326e+00
  1.4812069e-01
  1.2975483e-04
 -9.0198002e-05
  4.1059308e-02
  2.6909681e-02
  6.1282068e-01
  5.6525301e-02
  3.8763154e-02
 -4.3535340e-03
 -7.7709086e-02
 -4.4229493e-01
 -6.7747134e-01
  4.6761510e-05
 -8.9447767e-01
  7.9048955e-04
  8.2430774e-03
  2.8449063e-05
  4.6372777e-05
 -9.7322612e-05
 -1.4510494e-01
 -3.4336201e-05
  5.3832803e-02
 -1.9419000e-05
  5.5483881e-05
 -2.5156158e-04
 -1.2307277e-05
  3.2240525e-04
  7.0422808e-05
  2.7506992e-05
  6.7201749e-05
  1.5483476e-04
  2.1435852e-05
  1.2263846e-04
  9.0541980e-05
 -2.8159341e-04
 -6.2825704e-05
 -1.0076501e-04
  5.3814296e-05
  8.5290418e-07
 -1.2941346e-04
 -1.0859632e-05
  3.1880314e-05
 -1.8501935e-04
  4.4797594e-05
 -6.8265144e-05
 -9.7610631e-05
  7.5165583e-05
  2.1317462e-04
  1.9740528e-05
 -3.8807111e-06
 -2.9513030e-05
  1.6936105e-01
  1.0245075e+00
 -4.8376631e-02
 -1.0230385e+00
 -4.3533492e-01
 -1.2135308e-01
 -6.6293627e-01
 -1.6072812e+00
 -1.5767137e+00
  6.2051970e-01
  4.9850562e-01
 -1.0832753e-01
 -1.6608822e+00
  1.3442509e-04
  2.0290054e-02
  1.0959283e+00
  1.4100599e-01
 -3.1766817e-01
 -1.1752518e+00
 -1.2068892e+00
 -3.8644662e-01
 -1.4489105e-01
  2.7009961e-01
  7.7054900e-01
 -5.2898985e-01
  1.2105521e-04
 -3.6261827e-04
 -4.7796480e-02
  6.0464776e-01
 -1.2508453e+00
 -4.6660568e-04
  3.1934218e-05
  3.9716347e-06
 -2.0507435e-04
 -1.5987631e-05
 -4.1773371e-04
  1.3960611e-04
  1.6595685e-04
 -4.0609484e-05
  1.8718862e-04
  3.4970853e-05
  8.1099912e-05
  1.1440535e-04
 -1.2443215e-04
  2.6352849e-04
 -8.1628074e-05
 -5.6799887e-05
 -1.4382528e-04
 -5.2670970e-05
  2.9360015e-05
 -8.1864964e-05
 -6.6647350e-05
 -2.8976943e-05
 -4.5666813e-05
  6.4489395e-05
 -9.8968267e-05
  4.0443752e-05
 -3.6839981e-05
 -2.0607200e-05
  8.5879597e-05
 -8.7418943e-05
 -6.4492509e-05
 -4.6074914e-05
 -2.9060295e-05
 -7.2082119e-05
  1.4057453e-05
 -2.5534979e-04
 -2.7371368e-06
  4.2670377e-05
  3.4380174e-04
  1.0138773e-05
 -9.3597419e-06
  6.3438987e-05
  4.8783437e-05
 -7.0838454e-05
  1.3282099e-04
 -6.2254774e-05
  7.1440714e-05
 -1.9590208e-05
  3.0501632e-04
 -4.7389808e-04
 -4.2539588e-05
 -4.8100839e-05
 -4.8897844e-05
 -8.2698840e-05
  5.5383611e-05
 -6.6471388e-05
 -6.5221786e-05
 -2.3527235e-05
  5.9437752e-05
 -4.6275152e-05
  5.8900718e-05
 -1.2334078e-05
  4.9442187e-04
 -5.7122408e-05
 -6.0289271e-06
 -1.6249002e-04
  6.7854104e-05
  3.4458049e-06
 -2.0425627e-05
  2.8184319e-05
  5.4596330e-06
 -4.3605138e-05
 -1.2649428e-04
 -8.2496794e-05
 -2.7619809e-04
 -7.5663243e-05
 -9.8554638e-06
 -9.4453084e-05
  1.8625602e-04
  1.5866564e-04
  2.2402496e-04
 -7.1098984e-05
 -1.8150761e-04
  1.2668195e-04
 -5.0204042e-05
  2.5341567e-05
 -2.8404963e-04
  5.4162352e-05
 -1.5926153e-05
 -5.7844776e-01
 -9.5676178e-06
 -1.5158947e-05
 -5.5968198e-03
  4.4157732e-01
  1.4593292e-06
 -6.2961779e-05
 -3.5532936e-05
 -1.0122366e-01
  5.8628058e-05
  4.7054798e-03
  2.4122067e-04
  2.2574009e-04
  1.2075823e-04
 -2.7918146e-05
  5.3453720e-01
 -1.0328254e-04
  4.2910999e-04
  1.3134845e-01
  9.7920583e-04
  4.3422086e-03
 -3.4602429e-04
  5.8101362e-01
 -1.6278263e-04
  4.1239666e-05
  3.8520218e-05
  5.6604866e-05
  9.7818747e-06
  9.7398217e-05
 -2.1070600e-04
  6.4742751e-05
 -1.7689279e-04
 -1.8945780e-04
  3.0824568e-04
 -6.9626301e-05
  4.0277287e-06
 -1.1512133e-04
 -3.5196808e-05
  1.8856028e-04
  6.1518920e-05
  1.1749348e-04
  1.4194571e-04
 -2.9343128e-04
  1.6888297e-04
  7.3679992e-05
  3.6107162e-05
  3.7828082e-05
 -5.7748093e-05
  1.3048583e-04
  2.5220725e-04
  5.4475286e-06
 -1.5098596e-05
 -4.8777388e-06
 -6.7799156e-05
 -1.8512722e-04
  7.1738893e-04
 -2.1096015e-05
 -1.8896757e-05
 -3.1922930e-06
  1.9161509e-05
 -1.2676584e+00
  1.5154296e-04
 -5.7128525e-01
  9.2490964e-02
  4.6899572e-01
 -7.3087649e-06
 -2.5969481e-01
 -1.5517966e-04
  6.1111597e-05
 -3.1619877e-04
  5.3322237e-05
 -1.0355384e-04
 -2.4550916e-05
  1.1109462e-01
  1.4267646e+00
 -2.7867365e-01
  5.5940211e-07
 -5.1744434e-04
  1.8509729e-04
 -4.4133353e-01
 -1.8874784e-05
 -1.8448201e-05
  5.3361153e-05
  1.8664364e-04
 -1.7967192e-04
 -3.0300883e-04
  1.1703318e-06
 -6.3416513e-04
 -7.0083988e-09
  7.6075333e-01
  3.1702039e-01
  3.6231897e-06
 -6.9726437e-02
  1.0047092e+00
 -6.0375434e-01
 -5.2999538e-05
 -2.6074570e-04
 -3.4160879e-01
  4.0185813e-02
  3.2944554e-01
 -6.2051597e-03
  1.0886937e-05
  1.2611233e-01
  1.0378402e+00
  1.3075738e+00
 -2.8918317e-01
  6.1381900e-01
  2.7197430e-01
  1.5482953e-01
 -5.0132228e-03
 -9.5373958e-02
  6.1446780e-01
 -2.4217898e-01
 -3.4836501e-01
  3.9718962e-01
 -1.0135707e-01
 -2.8692800e-01
 -3.3322224e-01
  7.4566796e-02
  5.4255952e-03
  6.6971844e-01
  1.3216171e-01
 -2.0668845e-01
 -7.1915805e-01
  1.0790752e-04
  1.4956050e-03
 -1.7016986e-04
 -7.4997060e-02
 -2.5993309e-04
  3.5293463e-01
  1.3032132e-01
  6.8083915e-05
  1.4901553e-04
 -6.7078792e-02
  4.9106818e-01
  6.8509656e-01
  1.1438152e-04
 -1.3195921e-03
 -8.6997963e-05
  2.1569222e-01
  3.2545754e-01
 -2.0600804e-04
 -4.2096068e-05
 -5.8476429e-04
 -2.6960674e-04
  4.1010207e-04
  6.0123406e-05
  2.2143191e-04
  1.4621930e-04
 -3.1904236e-04
 -5.9714305e-01
  4.4103616e-01
 -5.8677106e-05
 -1.5841949e-01
  5.8735139e-05
 -1.7660850e-04
 -6.5187298e-05
 -2.9489343e-05
  1.7018270e-05
  6.4302068e-05
  9.1263057e-05
 -4.5513425e-05
 -4.3759741e-05
 -1.5210626e-02
  4.2511103e-01
  5.1199520e-05
  2.9245816e-06
  5.1241491e-02
  1.9698089e-05
  5.7820886e-01
  1.8423652e-02
 -1.7437847e-04
  1.8706793e-04
  9.3526367e-05
 -3.3002310e-05
 -7.1980736e-05
  8.6464485e-07
  1.8133078e-05
  1.0477557e-05
  1.0219972e-05
  2.4820033e-01
 -1.6153649e-04
  5.0465769e-06
  5.4613349e-05
 -7.8678029e-05
 -4.0354760e-05
  1.8983739e-04
  6.7320407e-06
  1.3391124e-04
 -6.2667772e-05
  3.4285553e-05
  1.3135669e-05
  7.0709706e-07
  2.3444847e-04
 -3.9853374e-03
 -9.6882584e-05
  9.5328694e-05
  1.8653205e-05
  3.2279051e-05
  3.6095464e-04
 -4.5405315e-05
  5.6745641e-05
  1.0070865e-04
  3.1590236e-05
 -1.3912997e-04
 -2.5304878e-04
  6.0943130e-05
  3.1220956e-05
 -2.3662267e-05
 -2.4506504e-05
  1.4325608e-04
  5.2560470e-05
 -1.4800561e-04
  1.5852818e-05
 -5.2783714e-04
 -6.8899186e-05
  1.1392617e-04
 -3.9993767e-05
 -1.7934553e-05
 -6.6721848e-05
 -2.5112722e-05
  5.2914745e-04
  4.7205707e-05
 -2.1242579e-04
  7.6829328e-06
 -2.9337069e-05
 -5.5241147e-05
 -9.8355285e-06
 -6.4811342e-05
  9.1397060e-06
 -2.8519682e-06
  1.4636449e-04
 -1.7432563e-04
 -4.9433624e-05
 -4.5008521e-05
  4.6575897e-06
  1.4535851e-04
 -2.8944341e-05
 -1.1386292e-04
  2.1509616e-06
 -2.4355046e-01
 -4.2117728e-05
 -3.9157993e-03
 -8.4842438e-01
  4.2562342e-01
  3.5562538e-04
 -5.7929334e-05
 -8.1682003e-05
  1.0190708e-04
  2.8315127e-01
  1.9711197e-05
  2.3240746e-05
  1.5350450e-03
 -2.3891619e-01
 -2.5406495e-01
  3.7521735e-01
 -1.4098163e-04
  2.8818331e-04
  1.2645555e-04
 -9.8563570e-01
  1.5979091e-03
 -2.2379321e-04
  1.1296607e-04
 -2.4029230e-01
 -9.6365453e-05
  3.0208434e-05
 -1.6638238e-06
  1.0350028e-04
  6.4286683e-06
 -4.4316530e-05
 -3.1711838e-01
  1.8228174e+00
  1.3006266e+00
  6.3838536e-01
 -2.7035513e+00
 -9.7394800e-01
  5.1583594e-01
  1.2751602e+00
  1.1597637e+00
  3.7328106e-01
 -7.3701382e-01
  3.9223797e-04
  2.0495935e-01
 -3.3836931e-02
  8.3782089e-01
  1.1726783e-01
  2.0984197e-01
  6.9373724e-05
  2.2073260e-01
  1.0182838e+00
  5.4337305e-01
  6.1130935e-01
  2.0823185e-01
 -8.4087008e-01
  3.8965559e-01
 -2.8583825e-01
 -8.7369321e-05
 -1.5718365e-01
  2.4435806e-01
  1.7693827e-01
 -3.1537381e-01
  8.6446176e-05
  4.9835155e-05
 -8.1867069e-02
 -6.0315983e-06
 -4.5482699e-05
 -1.6473086e-05
 -8.8422123e-05
 -1.1358131e-04
  1.2030981e-04
 -1.0038149e-04
  3.9131981e-05
  5.3316817e-05
 -1.7735350e-04
  1.7378476e-05
 -2.4844803e-05
  6.5051117e-06
  1.9372765e-04
 -6.0505994e-05
 -9.2453653e-01
  2.5444515e-03
  2.1835070e-04
 -7.8036574e-05
 -3.2118303e-06
 -8.8135646e-05
  1.2183982e-04
 -3.9179661e-04
  5.3168573e-05
 -4.2171196e-05
 -3.9426795e-05
 -2.6946136e-01
 -7.0647525e-06
  2.1181015e-05
 -2.9288203e-05
  1.0902662e-04
  5.9792779e-05
  1.0628683e-04
  1.3534530e-04
  6.6589884e-05
  5.7192719e-05
  8.3512670e-05
 -1.1610290e-04
  4.3266293e-04
 -1.0143101e-05
 -2.0574684e-05
 -8.0115147e-05
 -1.0716561e-04
 -8.9846711e-05
 -8.6740220e-05
  1.0853605e-04
 -4.6234891e-05
  1.4505108e-04
  1.2967449e-04
  3.6432706e-05
 -4.3269948e-04
  1.6132709e-04
  3.9587458e-04
 -1.2292191e-04
 -1.5426513e-04
  1.1246322e-04
 -6.7421445e-03
 -8.3915576e-05
 -1.1283045e-01
  3.1061712e-01
  1.4050287e-04
  9.5838586e-05
 -9.6723277e-05
 -1.3420016e-04
  4.6693007e-05
  7.8390233e-02
 -4.4572519e-04
 -2.8290626e-04
  1.2549340e-04
  6.4128626e-04
 -1.6625538e+00
 -5.2012753e-02
  9.2021051e-05
  9.8746326e-03
  3.8945238e-04
  4.9336883e-01
  2.9250747e-04
  1.4161026e-04
  8.7214857e-02
  4.0895730e-04
  3.2681804e-05
 -2.4750023e-04
 -2.2888589e-06
 -1.2267048e-04
 -1.9287292e-05
 -1.5630611e-05
  2.8057349e-01
 -3.7653148e-01
 -1.1156914e-02
  8.6270887e-01
  1.1861638e+00
  1.3538225e-01
  1.9246039e-01
 -3.8731769e-01
 -4.2394888e-01
  1.5201534e-01
 -7.9314435e-01
  7.6175076e-03
 -4.4254956e-01
  1.5375033e-01
 -5.6688559e-01
 -5.2684307e-02
  7.3445648e-01
  1.7478815e-01
  5.7969660e-01
  6.3008904e-01
  5.1523441e-01
  1.7911066e-01
  1.6665070e+00
  4.9506328e-01
  2.3881373e-01
  5.2576699e-05
 -2.9001664e-04
 -1.2197776e-05
  1.0871202e-01
 -2.8114526e-02
 -3.6754131e-01
 -7.8166384e-01
 -9.9199218e-01
 -5.1024646e-01
 -1.1598830e+00
 -3.5881627e-01
  9.1061962e-01
  4.5032361e-05
  1.2999827e+00
 -1.1395654e-01
 -6.9869602e-01
  1.1039311e+00
 -4.7216189e-01
  1.0480300e+00
  1.0551798e+00
 -1.5157422e-02
  8.6429244e-01
 -3.4628816e-02
  7.3444140e-01
  4.9378508e-01
  6.0212618e-01
  9.7731888e-01
  1.0113548e+00
  9.9406764e-04
 -1.0861058e-01
 -5.6749731e-01
 -9.1531289e-01
 -3.0752942e-01
 -1.5705146e-04
  3.7428392e-03
 -3.8089394e-05
 -1.0502033e-05
 -5.5538716e-05
  2.7373953e-05
 -2.2654498e-05
  2.9369756e-05
  2.5663769e-05
  1.0401288e-04
  2.1430168e-04
 -5.0101175e-05
  1.4736633e-04
  2.6121010e-05
 -2.1408005e-04
 -8.1763967e-05
  2.8150337e-04
  1.0718135e-04
  2.5378402e-05
 -8.4671046e-05
  4.1977513e-05
  4.7327363e-04
 -7.7838864e-05
  3.0029548e-04
 -3.8854800e-05
 -2.6222107e-05
  7.5395533e-06
  9.0452913e-06
 -5.2392902e-06
 -1.1688817e-05
 -2.1492677e-05
 -5.8601236e-05
 -1.8869965e+00
  4.5114815e-05
 -7.3349470e-01
  3.2485691e-01
 -3.2498643e-01
 -4.6770755e-02
  4.6188165e-05
  2.9075363e-05
 -5.1439018e-04
 -5.0771439e-01
 -2.3677878e-01
 -4.6097514e-01
  9.2071488e-05
  1.4895974e-05
 -1.1096975e+00
  7.8454949e-03
  5.4811258e-05
  1.4452542e-02
  5.7115453e-01
 -5.3862661e-01
 -1.3994325e-04
 -1.1141041e-05
  7.3798037e-01
  3.4131846e-01
 -4.3797583e-05
 -7.7248660e-05
 -2.0651011e-04
 -7.6477394e-05
 -1.6331005e-05
 -1.6482925e-01
 -6.5330997e-02
 -7.5547243e-05
 -2.1244612e-05
  2.3163515e-04
 -4.9694645e-05
  3.9343655e-01
 -1.0600190e-04
 -7.3952506e-05
 -1.1089789e-05
  5.1260609e-05
 -2.7813983e-01
 -6.6996747e-01
  1.9720783e-04
  6.0218663e-05
 -2.5408741e-04
  9.4794770e-05
 -5.5432940e-01
 -1.0460826e+00
  1.6829812e-04
  1.2158102e-02
  3.1643781e-01
  9.4365150e-06
 -8.1447637e-05
 -7.7181779e-05
 -1.1086275e-01
 -1.1024408e+00
  7.9203922e-01
 -8.2561171e-01
  1.3068110e-04
  7.1476251e-02
 -1.1149362e-04
  2.8914816e-04
 -5.5203454e-05
  4.8949739e-01
  1.0926769e-04
  9.7307330e-01
  1.1894790e+00
  5.6087291e-01
  4.6395656e-01
  1.0915544e-06
 -5.7923393e-05
 -8.4839482e-03
  6.1649883e-01
  6.2204301e-01
 -2.9185205e-05
 -3.2343391e-01
 -1.1647112e+00
  2.3125932e+00
  1.7224071e-05
  8.1090039e-01
  2.4473689e-01
  2.4285899e-04
 -5.6391627e-06
 -1.4268926e-02
 -2.0924366e-01
 -1.5268449e-01
 -4.9134342e-06
  4.1577443e-01
 -2.1903065e-01
 -2.4322039e-04
 -2.3173423e+00
  4.8650560e-01
  4.1912037e-01
  6.4777974e-05
 -2.4821266e-04
  1.8096385e-04
 -1.0532547e+00
 -3.2211125e+00
  1.2998238e-03
 -1.7381604e-01
 -9.9797261e-01
 -2.5285140e-04
 -1.5753260e-01
 -1.2124269e-04
 -2.0730608e+00
 -7.9307967e-01
 -7.8985143e-01
  7.0564139e-01
 -1.1708416e-01
 -1.5696077e+00
  7.0997438e-04
  2.0701093e-05
  1.2656131e-04
 -4.7509634e-01
 -2.7894692e-02
  4.6017784e-01
  1.3311913e+00
 -8.3388358e-01
 -3.6406097e-01
  2.0738153e-01
  5.4070024e-05
 -6.6560829e-01
 -2.8612773e+00
 -5.5202556e-01
 -1.5705268e-01
  3.7408572e-01
  1.5877539e+00
  2.2584732e+00
 -1.5761798e-04
  5.7880855e-01
  2.9848547e+00
 -3.3239704e-02
  1.6562709e+00
 -2.7752453e-01
 -7.1925819e-02
  6.2894505e-05
  1.1569203e-05
 -8.9859685e-05
  1.0896598e-05
  1.9545547e-05
  4.6796192e-04
 -1.2174305e-05
 -5.0670635e-02
 -5.1455736e-01
  1.9589613e-01
 -1.3996759e-01
 -2.4710761e-01
  3.1294458e-04
  7.8273982e-02
  4.7290116e-05
  1.1365273e-05
 -5.4298252e-01
 -3.5492557e-01
 -5.9196342e-02
 -7.0451981e-01
 -2.1641368e-01
  8.0971390e-01
 -9.3087547e-05
  1.4191752e-03
  3.0300522e-01
  1.1213354e-01
 -3.5946701e+00
 -6.1441255e-01
 -1.9013970e+00
 -9.7785610e-01
 -1.2997925e+00
 -9.5351964e-01
  1.1074482e+00
 -1.4953697e+00
 -1.3442328e+00
  1.6594987e+00
  2.9858068e-01
 -8.1154144e-01
  1.4815069e+00
  1.6335320e-01
  7.8457654e-01
  8.3131433e-02
 -2.3106222e+00
  1.2173603e-01
  1.2560760e+00
  6.5143257e-02
  1.3790076e+00
 -3.1773871e-01
 -4.5144503e-04
 -1.1243016e+00
  1.2190248e+00
  2.4842596e-01
  1.0143446e+00
 -1.3738437e-01
 -4.4167614e-01
 -1.2575132e+00
  2.1022451e+00
 -3.3756855e-01
 -1.1251812e-01
 -8.2270849e-01
  2.1426671e-04
  1.1770755e+00
  1.4032468e+00
 -1.6182162e-01
  9.2389636e-02
 -8.7742579e-01
  1.0582974e+00
 -3.3211672e-01
 -8.4935248e-01
 -9.2783129e-01
 -2.5733697e-01
 -1.3834767e+00
  7.3442432e-05
  5.8866702e-02
  7.7995181e-01
 -9.6103305e-01
 -4.0799588e-01
  1.0524322e+00
 -6.5696883e-01
  5.6557041e-02
 -1.4187604e+00
 -6.8079811e-01
 -8.2540683e-02
  3.5987368e-01
  2.4258503e-05
 -3.0138114e-01
  1.6755103e+00
 -1.6059378e+00
 -1.1256663e+00
 -1.6992651e+00
 -1.9016531e+00
  7.6095986e-01
  2.5894864e+00
 -1.0362914e+00
  2.0740093e-01
 -5.5512136e-01
 -1.0004057e-04
  1.4006310e+00
  1.1802344e+00
 -7.9256743e-02
  1.3853710e+00
  9.9026674e-01
  1.1393694e+00
  1.1014296e+00
 -8.5381323e-01
 -4.8874381e-01
  1.2695340e+00
  7.6639488e-02
 -2.4772279e-01
  6.5131575e-01
  1.3912683e-05
  1.8480916e-04
  8.1443810e-01
  1.4329201e-01
  9.1138290e-04
 -4.9063310e-02
 -6.9591343e-01
 -1.1773072e+00
  2.3253709e-01
 -4.9326718e-01
 -1.2524383e-06
 -2.3676796e+00
 -1.6966626e-01
  5.4739761e-01
  3.0164757e+00
 -9.4256371e-01
  9.0542156e-01
  1.3599952e+00
 -7.4877423e-01
  4.5780715e-02
  1.9456781e-01
 -1.0844977e+00
 -1.3603452e+00
  1.8054992e+00
  9.6513730e-01
 -1.7796052e+00
 -1.5443504e+00
  6.7049927e-01
  6.8222868e-01
 -3.8286069e-01
  2.5212526e-02
 -3.3241943e-01
 -1.2386994e+00
  7.0586227e-02
  2.9755234e-05
 -4.8340377e-01
 -2.2442119e+00
  1.0884596e+00
 -1.4698596e+00
  1.3527862e+00
  1.3427892e+00
 -2.7842000e+00
  1.3156915e+00
 -3.8906655e-01
 -2.2999794e+00
 -2.8261366e-01
 -1.2968634e-02
 -9.4230402e-01
 -1.5076464e+00
  1.5307877e+00
 -8.9630407e-01
  7.5199747e-01
  5.7068431e-01
  3.7905100e-01
 -3.1167964e-02
  3.5962526e-02
 -1.4376594e+00
  1.3683514e-01
 -6.5329063e-01
 -1.4083854e+00
 -1.1867061e+00
  1.2166795e+00
 -5.0396651e-01
 -5.4808861e-01
 -5.8063966e-01
  8.8003308e-01
  2.9352210e+00
 -1.2054569e+00
 -6.0819465e-01
 -1.4739243e+00
  1.6835628e-01
 -7.9359305e-01
  4.2180234e-01
  1.3813971e-05
  1.4731591e+00
  1.1906966e-04
 -3.7457120e-02
  3.0001366e-04
  1.6706589e+00
 -2.6413324e-01
  1.6234621e+00
 -6.8932265e-01
 -5.2307714e-05
  1.5539245e-03
  8.7343645e-01
  3.3833790e-01
 -1.2085230e+00
 -3.2937789e-01
  1.1668273e+00
  2.5344244e-01
  1.5626806e+00
 -3.5992122e-01
  9.6040148e-01
  4.5594415e-01
  9.5879316e-01
 -8.0590266e-01
  1.1607337e+00
  8.4328663e-01
  1.4964871e+00
 -3.5708481e-01
  3.0261162e-01
  6.4977765e-01
 -8.8722819e-01
  4.5965669e-01
  1.0545806e+00
  4.4715545e-01
 -8.5989595e-05
  1.8257791e-01
  1.0121408e+00
  1.6588734e-01
 -3.1742460e-01
  8.2994848e-02
 -2.1105499e+00
 -2.3581313e-01
 -7.1205801e-01
  3.4911412e-01
 -1.6684074e+00
  3.4499109e-01
 -3.1172622e-05
  1.5650908e+00
  2.7047272e+00
  1.3471273e+00
 -7.6534188e-01
  3.6529773e-01
  1.1833425e+00
 -5.8524722e-01
 -3.7525474e-06
 -2.9845929e-01
 -5.9604007e-01
 -4.1351041e-01
 -1.1526694e+00
 -1.4693201e+00
  1.5243796e-01
  7.4451290e-02
 -1.7032466e+00
 -3.9614272e-01
  1.4512637e+00
  5.5628198e-01
  2.9814849e+00
  1.6194172e-01
 -1.1873869e-01
 -3.7444806e-01
  7.8816503e-01
  1.5266420e-01
 -2.8578103e-02
 -1.2123270e+00
 -1.1127778e-04
 -1.5753368e+00
 -1.2297174e+00
  1.8643517e+00
  1.4460595e+00
 -8.9523900e-01
  2.4725349e+00
 -1.6813301e-01
  5.4989177e-01
  1.3971279e+00
 -9.0454894e-01
 -9.3575501e-01
 -8.9393929e-02
  1.4871664e+00
 -2.0713837e+00
 -1.3085282e+00
  2.1246698e+00
  6.5202016e-01
 -8.8616543e-02
 -7.5825399e-01
  3.3798829e-01
 -8.3922333e-01
  8.0858046e-01
  1.5970682e-01
  9.1175711e-01
  8.5994162e-02
  1.1033045e+00
  1.0261281e+00
 -3.2483076e-05
 -1.9885054e+00
 -8.1967103e-01
  2.0444825e-01
  6.4087108e-05
 -1.9963583e+00
 -1.4791062e+00
  1.2371068e+00
 -7.9728633e-01
  2.0321100e+00
  1.9026099e+00
 -1.4157157e+00
  1.0081542e-01
  4.8024553e-01
  7.4245530e-01
  4.8658589e-01
 -3.7795638e-05
 -2.4532108e-02
 -2.0384159e+00
  1.4677206e+00
 -2.0950578e-01
  1.5258510e+00
 -1.2113018e+00
  4.2747069e-02
  2.1037936e-01
  3.3046928e-01
 -1.7258844e-01
 -1.9550374e-01
 -6.6938549e-02
 -5.6306052e-01
 -5.0007725e-01
  2.4700016e-01
 -6.7841899e-01
  1.0364046e-01
 -6.7374356e-02
  3.8583419e-01
  8.0906890e-02
 -2.0459409e+00
 -1.1627569e-01
  1.2028798e+00
  7.0393912e-02
 -2.4492502e+00
 -1.0869313e-01
 -9.4144142e-01
 -3.6310345e-02
  1.2109091e+00
  1.9516369e+00
  3.0453354e-02
  1.8049436e+00
 -4.9567312e-01
 -1.0990334e+00
 -1.1811123e+00
 -9.0625696e-02
 -1.3017535e+00
 -2.1225762e+00
 -1.5274103e+00
 -1.6836119e-01
  1.0305940e+00
  7.6140839e-01
 -8.0163634e-01
  1.8444282e+00
  2.5241673e+00
 -5.5673659e-01
  5.0207919e-01
 -2.4721950e-02
  8.4027982e-01
 -1.4681398e+00
  1.0705494e+00
 -6.7448008e-01
 -1.5217541e-01
 -9.2892057e-01
  7.4024713e-01
  2.0770084e-02
  2.0770084e-02
  2.0770084e-02
  2.0770084e-02
  2.0770084e-02
  7.8535698e-02
  7.8535698e-02
  7.8535698e-02
  7.8535698e-02
  7.8535698e-02
  3.9922953e-02
  3.9922953e-02
  3.9922953e-02
  3.9922953e-02
  3.9922953e-02
  2.5376225e-02
  2.5376225e-02
  2.5376225e-02
  2.5376225e-02
  2.5376225e-02
  8.5962433e-03
  8.5962433e-03
  8.5962433e-03
  8.5962433e-03
  8.5962433e-03
  2.2330999e-02
  2.2330999e-02
  2.2330999e-02
  2.2330999e-02
  2.2330999e-02
